~o
<STREAMINFO> 4 3 1 1 1
<MSDINFO> 4 0 1 1 1
<VECSIZE> 6<NULLD><USER><DIAGC>
~v "varFloor1"
<VARIANCE> 3
 1.083429e-04 2.576245e-04 9.765166e-04
~v "varFloor2"
<VARIANCE> 1
 1.043822e-04
~v "varFloor3"
<VARIANCE> 1
 2.033164e-06
~v "varFloor4"
<VARIANCE> 1
 6.375236e-06
~h "b"
<BEGINHMM>
<NUMSTATES> 5
<STATE> 2
<STREAM> 1
<MEAN> 3
 3.343099e+00 1.989723e+00 7.939060e-01 
<VARIANCE> 3
 9.150029e-01 3.936284e-01 1.302513e-01 
<GCONST> 2.4526443175997614
<STREAM> 2
<NUMMIXES> 2
<MIXTURE> 1 8.263821e-01
<MEAN> 1
 5.103563e+00
<VARIANCE> 1
 1.124671e-02
<GCONST> -2.649802e+00
<MIXTURE> 2 1.736176e-01
<MEAN> 0
<VARIANCE> 0
<GCONST> 0.000000e+00
<STREAM> 3
<NUMMIXES> 2
<MIXTURE> 1 8.166060e-01
<MEAN> 1
 -7.669139e-03
<VARIANCE> 1
 5.228776e-04
<GCONST> -5.718287e+00
<MIXTURE> 2 1.833938e-01
<MEAN> 0
<VARIANCE> 0
<GCONST> 0.000000e+00
<STREAM> 4
<NUMMIXES> 2
<MIXTURE> 1 8.166057e-01
<MEAN> 1
 7.464386e-03
<VARIANCE> 1
 3.830531e-03
<GCONST> -3.726875e+00
<MIXTURE> 2 1.833937e-01
<MEAN> 0
<VARIANCE> 0
<GCONST> 0.000000e+00
<STATE> 3
<STREAM> 1
<MEAN> 3
 2.767897e+01 1.753222e+01 8.247473e-01
<VARIANCE> 3
 4.748363e+00 1.577641e+00 5.024268e-02
<GCONST> 4.5349501475852705
<STREAM> 2
<NUMMIXES> 2
<MIXTURE> 1 8.991477e-01
<MEAN> 1
 5.095285e+00
<VARIANCE> 1
 8.400292e-03
<GCONST> -2.941612e+00
<MIXTURE> 2 1.008500e-01
<MEAN> 0
<VARIANCE> 0
<GCONST> 0.000000e+00
<STREAM> 3
<NUMMIXES> 2
<MIXTURE> 1 8.885387e-01
<MEAN> 1
 -5.239137e-03
<VARIANCE> 1
 1.719077e-04
<GCONST> -6.830676e+00
<MIXTURE> 2 1.114580e-01
<MEAN> 0
<VARIANCE> 0
<GCONST> 0.000000e+00
<STREAM> 4
<NUMMIXES> 2
<MIXTURE> 1 8.885392e-01
<MEAN> 1
 2.045703e-03
<VARIANCE> 1
 4.450810e-04
<GCONST> -5.879377e+00
<MIXTURE> 2 1.114577e-01
<MEAN> 0
<VARIANCE> 0
<GCONST> 0.000000e+00
<STATE> 4
<STREAM> 1
<MEAN> 3
 1.799874e+01 9.757369e-01 3.890605e+00
<VARIANCE> 3
 6.070746e+00 2.336720e-02 7.989312e-01
<GCONST> 3.334689044574287
<STREAM> 2
<NUMMIXES> 2
<MIXTURE> 1 2.790197e-01
<MEAN> 1
 5.087463e+00
<VARIANCE> 1
 6.930625e-03
<GCONST> -3.133929e+00
<MIXTURE> 2 7.209770e-01
<MEAN> 0
<VARIANCE> 0
<GCONST> 0.000000e+00
<STREAM> 3
<NUMMIXES> 2
<MIXTURE> 1 2.427119e-01
<MEAN> 1
 1.473594e-03
<VARIANCE> 1
 1.552627e-04
<GCONST> -6.932515e+00
<MIXTURE> 2 7.572848e-01
<MEAN> 0
<VARIANCE> 0
<GCONST> 0.000000e+00
<STREAM> 4
<NUMMIXES> 2
<MIXTURE> 1 2.427119e-01
<MEAN> 1
 2.830870e-03
<VARIANCE> 1
 1.007576e-03
<GCONST> -5.062330e+00
<MIXTURE> 2 7.572848e-01
<MEAN> 0
<VARIANCE> 0
<GCONST> 0.000000e+00
<TRANSP> 5
 0.000000e+00 1.000000e+00 0.000000e+00 0.000000e+00 0.000000e+00 
 0.000000e+00 0.100000e+00 0.800000e+00 0.050000e+00 0.050000e+00 
 0.000000e+00 0.000000e+00 0.700000e+00 0.250000e+00 0.050000e+00 
 0.000000e+00 0.000000e+00 0.000000e+00 0.700000e+00 0.300000e+00 
 0.000000e+00 0.000000e+00 0.000000e+00 0.000000e+00 0.000000e+00  
~h "d"
<BEGINHMM>
<NUMSTATES> 5
<STATE> 2
<STREAM> 1
<MEAN> 3
 4.497228e+00 1.977565e+00 5.208829e-01
<VARIANCE> 3
 4.582673e-01 3.164685e-01 1.523477e-01
<GCONST> 1.6996858618857795
<STREAM> 2
<NUMMIXES> 2
<MIXTURE> 1 9.361925e-01
<MEAN> 1
 5.128128e+00
<VARIANCE> 1
 1.026362e-02
<GCONST> -2.741273e+00
<MIXTURE> 2 6.380580e-02
<MEAN> 0
<VARIANCE> 0
<GCONST> 0.000000e+00
<STREAM> 3
<NUMMIXES> 2
<MIXTURE> 1 9.319397e-01
<MEAN> 1
 -1.641482e-02
<VARIANCE> 1
 4.853394e-04
<GCONST> -5.792785e+00
<MIXTURE> 2 6.805856e-02
<MEAN> 0
<VARIANCE> 0
<GCONST> 0.000000e+00
<STREAM> 4
<NUMMIXES> 2
<MIXTURE> 1 9.308850e-01
<MEAN> 1
 1.355890e-02
<VARIANCE> 1
 3.868455e-03
<GCONST> -3.717023e+00
<MIXTURE> 2 6.911360e-02
<MEAN> 0
<VARIANCE> 0
<GCONST> 0.000000e+00
<STATE> 3
<STREAM> 1
<MEAN> 3
 3.843513e+00 1.865858e+02 6.133755e-01 
<VARIANCE> 3
 6.027267e-01 2.689743e+01 1.369556e-01
<GCONST> 6.309750772350233
<STREAM> 2
<NUMMIXES> 2
<MIXTURE> 1 9.329857e-01
<MEAN> 1
 5.113754e+00
<VARIANCE> 1
 9.437377e-03
<GCONST> -2.825200e+00
<MIXTURE> 2 6.701189e-02
<MEAN> 0
<VARIANCE> 0
<GCONST> 0.000000e+00
<STREAM> 3
<NUMMIXES> 2
<MIXTURE> 1 9.230714e-01
<MEAN> 1
 -2.563080e-03
<VARIANCE> 1
 4.755286e-04
<GCONST> -5.813207e+00
<MIXTURE> 2 7.692602e-02
<MEAN> 0
<VARIANCE> 0
<GCONST> 0.000000e+00
<STREAM> 4
<NUMMIXES> 2
<MIXTURE> 1 9.230167e-01
<MEAN> 1
 -8.220435e-03
<VARIANCE> 1
 3.584526e-03
<GCONST> -3.793252e+00
<MIXTURE> 2 7.698035e-02
<MEAN> 0
<VARIANCE> 0
<GCONST> 0.000000e+00
<STATE> 4
<STREAM> 1
<MEAN> 3
 3.264568e+00 1.673930e+02 6.814267e-01
<VARIANCE> 3
 7.357361e-01 1.787522e+01 9.977712e-02
<GCONST> 5.783825172837659
<STREAM> 2
<NUMMIXES> 2
<MIXTURE> 1 9.350697e-01
<MEAN> 1
 5.089077e+00
<VARIANCE> 1
 7.447389e-03
<GCONST> -3.062015e+00
<MIXTURE> 2 6.492831e-02
<MEAN> 0
<VARIANCE> 0
<GCONST> 0.000000e+00
<STREAM> 3
<NUMMIXES> 2
<MIXTURE> 1 9.115451e-01
<MEAN> 1
 -6.581024e-03
<VARIANCE> 1
 2.311581e-04
<GCONST> -6.534532e+00
<MIXTURE> 2 8.845210e-02
<MEAN> 0
<VARIANCE> 0
<GCONST> 0.000000e+00
<STREAM> 4
<NUMMIXES> 2
<MIXTURE> 1 9.115450e-01
<MEAN> 1
 2.587795e-03
<VARIANCE> 1
 6.001181e-04
<GCONST> -5.580507e+00
<MIXTURE> 2 8.845208e-02
<MEAN> 0
<VARIANCE> 0
<GCONST> 0.000000e+00
<TRANSP> 5
 0.000000e+00 1.000000e+00 0.000000e+00 0.000000e+00 0.000000e+00 
 0.000000e+00 0.100000e+00 0.800000e+00 0.050000e+00 0.050000e+00 
 0.000000e+00 0.000000e+00 0.700000e+00 0.250000e+00 0.050000e+00 
 0.000000e+00 0.000000e+00 0.000000e+00 0.700000e+00 0.300000e+00 
 0.000000e+00 0.000000e+00 0.000000e+00 0.000000e+00 0.000000e+00 
<ENDHMM>
~h "w"
<BEGINHMM>
<NUMSTATES> 5
<STATE> 2
<STREAM> 1
<MEAN> 3
 4.282452e+00 2.033581e+00 8.185039e-01 
<VARIANCE> 3
 7.887290e-01 2.067511e-01 1.544860e-01 
<GCONST> 1.83088602525944
<STREAM> 2
<NUMMIXES> 2
<MIXTURE> 1 8.052583e-01
<MEAN> 1
 5.206388e+00
<VARIANCE> 1
 1.162797e-02
<GCONST> -2.616465e+00
<MIXTURE> 2 1.947410e-01
<MEAN> 0
<VARIANCE> 0
<GCONST> 0.000000e+00
<STREAM> 3
<NUMMIXES> 2
<MIXTURE> 1 7.717985e-01
<MEAN> 1
 -5.200018e-03
<VARIANCE> 1
 6.266860e-05
<GCONST> -7.839773e+00
<MIXTURE> 2 2.281996e-01
<MEAN> 0
<VARIANCE> 0
<GCONST> 0.000000e+00
<STREAM> 4
<NUMMIXES> 2
<MIXTURE> 1 7.717986e-01
<MEAN> 1
 -3.304827e-04
<VARIANCE> 1
 9.025646e-05
<GCONST> -7.474978e+00
<MIXTURE> 2 2.281995e-01
<MEAN> 0
<VARIANCE> 0
<GCONST> 0.000000e+00
<STATE> 3
<STREAM> 1
<MEAN> 3
 3.568125e+00 1.929000e+02 8.679615e+02 
<VARIANCE> 3
 7.781282e-01 2.168161e+01 1.285704e+01
<GCONST> 10.891601911602333
<STREAM> 2
<NUMMIXES> 2
<MIXTURE> 1 6.541470e-01
<MEAN> 1
 5.214617e+00
<VARIANCE> 1
 1.590071e-02
<GCONST> -2.303515e+00
<MIXTURE> 2 3.458488e-01
<MEAN> 0
<VARIANCE> 0
<GCONST> 0.000000e+00
<STREAM> 3
<NUMMIXES> 2
<MIXTURE> 1 5.627930e-01
<MEAN> 1
 -6.980070e-03
<VARIANCE> 1
 1.375177e-03
<GCONST> -4.751296e+00
<MIXTURE> 2 4.372032e-01
<MEAN> 0
<VARIANCE> 0
<GCONST> 0.000000e+00
<STREAM> 4
<NUMMIXES> 2
<MIXTURE> 1 5.627934e-01
<MEAN> 1
 -1.061255e-02
<VARIANCE> 1
 8.411592e-03
<GCONST> -2.940267e+00
<MIXTURE> 2 4.372017e-01
<MEAN> 0
<VARIANCE> 0
<GCONST> 0.000000e+00
<STATE> 4
<STREAM> 1
<MEAN> 3
 3.983718e+00 2.208891e+02 1.089483e+02 
<VARIANCE> 3
 3.299246e-01 5.063011e+01 4.366670e+01
<GCONST> 12.104351062459498
<STREAM> 2
<NUMMIXES> 2
<MIXTURE> 1 9.500000e-01
<MEAN> 1
 5.184362e+00
<VARIANCE> 1
 9.172674e-03
<GCONST> -2.853649e+00
<MIXTURE> 2 5.000000e-02
<MEAN> 0
<VARIANCE> 0
<GCONST> 0.000000e+00
<STREAM> 3
<NUMMIXES> 2
<MIXTURE> 1 9.478878e-01
<MEAN> 1
 -1.833590e-03
<VARIANCE> 1
 2.866009e-04
<GCONST> -6.319543e+00
<MIXTURE> 2 5.211180e-02
<MEAN> 0
<VARIANCE> 0
<GCONST> 0.000000e+00
<STREAM> 4
<NUMMIXES> 2
<MIXTURE> 1 9.478880e-01
<MEAN> 1
 3.539821e-03
<VARIANCE> 1
 9.385949e-04
<GCONST> -5.133249e+00
<MIXTURE> 2 5.211141e-02
<MEAN> 0
<VARIANCE> 0
<GCONST> 0.000000e+00
<TRANSP> 5
 0.000000e+00 1.000000e+00 0.000000e+00 0.000000e+00 0.000000e+00 
 0.000000e+00 0.100000e+00 0.800000e+00 0.050000e+00 0.050000e+00 
 0.000000e+00 0.000000e+00 0.700000e+00 0.250000e+00 0.050000e+00 
 0.000000e+00 0.000000e+00 0.000000e+00 0.700000e+00 0.300000e+00 
 0.000000e+00 0.000000e+00 0.000000e+00 0.000000e+00 0.000000e+00 
<ENDHMM>